digraph Tree {
node [shape=box, style="filled", color="black"] ;
0 [label="flag <= 2.5\ngini = 0.544\nsamples = 61832\nvalue = [623, 310, 18, 3, 1037, 118, 1, 122, 9, 2, 253\n819, 15, 11, 16199, 62, 38442, 2, 1, 33, 143, 585\n13, 11, 292, 681, 14, 739, 148, 291, 2, 9, 2, 799\n1, 8, 4, 10]\nclass = udpstorm.", fillcolor="#39e5da7c"] ;
1 [label="service <= 4.5\ngini = 0.222\nsamples = 43579\nvalue = [393, 308, 18, 3, 1010, 18, 0, 122, 0, 2, 253, 112\n15, 8, 0, 0, 38392, 2, 0, 33, 83, 374, 13, 11\n103, 279, 14, 739, 148, 291, 2, 9, 2, 799, 1, 8\n4, 10]\nclass = udpstorm.", fillcolor="#39e5dae0"] ;
0 -> 1 [labeldistance=2.5, labelangle=45, headlabel="True"] ;
2 [label="src_bytes <= 31447.0\ngini = 0.1\nsamples = 39724\nvalue = [393, 308, 4, 1, 0, 0, 0, 0, 0, 0, 253, 0, 2\n1, 0, 0, 37674, 0, 0, 0, 65, 0, 4, 5, 20, 167\n6, 0, 141, 290, 0, 9, 2, 377, 0, 0, 0, 2]\nclass = udpstorm.", fillcolor="#39e5daf2"] ;
1 -> 2 ;
3 [label="gini = 0.06\nsamples = 38813\nvalue = [38, 1, 4, 1, 0, 0, 0, 0, 0, 0, 253, 0, 2, 1\n0, 0, 37625, 0, 0, 0, 65, 0, 4, 3, 20, 167, 6\n0, 141, 290, 0, 9, 2, 179, 0, 0, 0, 2]\nclass = udpstorm.", fillcolor="#39e5daf7"] ;
2 -> 3 ;
4 [label="gini = 0.684\nsamples = 911\nvalue = [355, 307, 0, 0, 0, 0, 0, 0, 0, 0, 0, 0, 0, 0\n0, 0, 49, 0, 0, 0, 0, 0, 0, 2, 0, 0, 0, 0\n0, 0, 0, 0, 0, 198, 0, 0, 0, 0]\nclass = normal.", fillcolor="#e5813914"] ;
2 -> 4 ;
5 [label="srv_count <= 75.5\ngini = 0.835\nsamples = 3855\nvalue = [0, 0, 14, 2, 1010, 18, 0, 122, 0, 2, 0, 112, 13\n7, 0, 0, 718, 2, 0, 33, 18, 374, 9, 6, 83, 112\n8, 739, 7, 1, 2, 0, 0, 422, 1, 8, 4, 8]\nclass = smurf.", fillcolor="#dfe53916"] ;
1 -> 5 ;
6 [label="gini = 0.813\nsamples = 3193\nvalue = [0, 0, 14, 2, 1010, 18, 0, 121, 0, 2, 0, 112, 13\n7, 0, 0, 718, 2, 0, 33, 18, 374, 9, 6, 83, 112\n8, 78, 7, 1, 2, 0, 0, 422, 1, 8, 4, 8]\nclass = smurf.", fillcolor="#dfe5391e"] ;
5 -> 6 ;
7 [label="gini = 0.003\nsamples = 662\nvalue = [0, 0, 0, 0, 0, 0, 0, 1, 0, 0, 0, 0, 0, 0, 0\n0, 0, 0, 0, 0, 0, 0, 0, 0, 0, 0, 0, 661, 0\n0, 0, 0, 0, 0, 0, 0, 0, 0]\nclass = loadmodule.", fillcolor="#ac39e5ff"] ;
5 -> 7 ;
8 [label="count <= 5.5\ngini = 0.21\nsamples = 18253\nvalue = [230, 2, 0, 0, 27, 100, 1, 0, 9, 0, 0, 707, 0\n3, 16199, 62, 50, 0, 1, 0, 60, 211, 0, 0, 189\n402, 0, 0, 0, 0, 0, 0, 0, 0, 0, 0, 0, 0]\nclass = apache2.", fillcolor="#39e5a3e1"] ;
0 -> 8 [labeldistance=2.5, labelangle=-45, headlabel="False"] ;
9 [label="srv_diff_host_rate <= 0.355\ngini = 0.628\nsamples = 1230\nvalue = [2, 2, 0, 0, 27, 100, 1, 0, 9, 0, 0, 707, 0, 3\n9, 62, 45, 0, 1, 0, 49, 211, 0, 0, 2, 0, 0, 0\n0, 0, 0, 0, 0, 0, 0, 0, 0, 0]\nclass = buffer_overflow.", fillcolor="#39e5537c"] ;
8 -> 9 ;
10 [label="gini = 0.799\nsamples = 591\nvalue = [2, 2, 0, 0, 27, 100, 1, 0, 2, 0, 0, 90, 0, 3\n9, 62, 31, 0, 1, 0, 49, 210, 0, 0, 2, 0, 0, 0\n0, 0, 0, 0, 0, 0, 0, 0, 0, 0]\nclass = mscan.", fillcolor="#396ae539"] ;
9 -> 10 ;
11 [label="gini = 0.067\nsamples = 639\nvalue = [0, 0, 0, 0, 0, 0, 0, 0, 7, 0, 0, 617, 0, 0\n0, 0, 14, 0, 0, 0, 0, 1, 0, 0, 0, 0, 0, 0\n0, 0, 0, 0, 0, 0, 0, 0, 0, 0]\nclass = buffer_overflow.", fillcolor="#39e553f6"] ;
9 -> 11 ;
12 [label="diff_srv_rate <= 0.46\ngini = 0.095\nsamples = 17023\nvalue = [228, 0, 0, 0, 0, 0, 0, 0, 0, 0, 0, 0, 0, 0\n16190, 0, 5, 0, 0, 0, 11, 0, 0, 0, 187, 402, 0\n0, 0, 0, 0, 0, 0, 0, 0, 0, 0, 0]\nclass = apache2.", fillcolor="#39e5a3f2"] ;
8 -> 12 ;
13 [label="gini = 0.028\nsamples = 16419\nvalue = [228, 0, 0, 0, 0, 0, 0, 0, 0, 0, 0, 0, 0, 0\n16189, 0, 2, 0, 0, 0, 0, 0, 0, 0, 0, 0, 0, 0\n0, 0, 0, 0, 0, 0, 0, 0, 0, 0]\nclass = apache2.", fillcolor="#39e5a3fb"] ;
12 -> 13 ;
14 [label="gini = 0.461\nsamples = 604\nvalue = [0, 0, 0, 0, 0, 0, 0, 0, 0, 0, 0, 0, 0, 0, 1\n0, 3, 0, 0, 0, 11, 0, 0, 0, 187, 402, 0, 0, 0\n0, 0, 0, 0, 0, 0, 0, 0, 0]\nclass = rootkit.", fillcolor="#7539e583"] ;
12 -> 14 ;
}