digraph Tree {
node [shape=box, style="filled", color="black"] ;
0 [label="flag <= 0.5\nentropy = 1.737\nsamples = 61832\nvalue = [623, 310, 18, 3, 1037, 118, 1, 122, 9, 2, 253\n819, 15, 11, 16199, 62, 38442, 2, 1, 33, 143, 585\n13, 11, 292, 681, 14, 739, 148, 291, 2, 9, 2, 799\n1, 8, 4, 10]\nclass = udpstorm.", fillcolor="#39e5da7c"] ;
1 [label="service <= 3.5\nentropy = 0.869\nsamples = 43004\nvalue = [4, 271, 18, 3, 1009, 17, 0, 122, 0, 2, 253, 108\n15, 8, 0, 0, 38338, 2, 0, 33, 0, 371, 13, 11\n103, 279, 14, 739, 148, 291, 2, 9, 2, 797, 1, 8\n3, 10]\nclass = udpstorm.", fillcolor="#39e5dae3"] ;
0 -> 1 [labeldistance=2.5, labelangle=45, headlabel="True"] ;
2 [label="service <= 0.5\nentropy = 0.273\nsamples = 37999\nvalue = [4, 271, 0, 0, 0, 0, 0, 0, 0, 0, 253, 0, 0, 0\n0, 0, 36836, 0, 0, 0, 0, 0, 0, 0, 20, 167, 6\n0, 141, 290, 0, 9, 2, 0, 0, 0, 0, 0]\nclass = udpstorm.", fillcolor="#39e5daf7"] ;
1 -> 2 ;
3 [label="entropy = 1.741\nsamples = 1466\nvalue = [0, 0, 0, 0, 0, 0, 0, 0, 0, 0, 0, 0, 0, 0, 0\n0, 839, 0, 0, 0, 0, 0, 0, 0, 18, 167, 0, 0\n141, 290, 0, 9, 2, 0, 0, 0, 0, 0]\nclass = udpstorm.", fillcolor="#39e5da77"] ;
2 -> 3 ;
4 [label="entropy = 0.127\nsamples = 36533\nvalue = [4, 271, 0, 0, 0, 0, 0, 0, 0, 0, 253, 0, 0, 0\n0, 0, 35997, 0, 0, 0, 0, 0, 0, 0, 2, 0, 6, 0\n0, 0, 0, 0, 0, 0, 0, 0, 0, 0]\nclass = udpstorm.", fillcolor="#39e5dafb"] ;
2 -> 4 ;
5 [label="service <= 14.5\nentropy = 2.844\nsamples = 5005\nvalue = [0, 0, 18, 3, 1009, 17, 0, 122, 0, 2, 0, 108, 15\n8, 0, 0, 1502, 2, 0, 33, 0, 371, 13, 11, 83\n112, 8, 739, 7, 1, 2, 0, 0, 797, 1, 8, 3, 10]\nclass = udpstorm.", fillcolor="#39e5da1f"] ;
1 -> 5 ;
6 [label="entropy = 2.353\nsamples = 3367\nvalue = [0, 0, 5, 2, 75, 16, 0, 122, 0, 0, 0, 0, 11, 8\n0, 0, 1335, 0, 0, 29, 0, 0, 9, 9, 82, 108, 4\n739, 7, 0, 0, 0, 0, 797, 0, 5, 1, 3]\nclass = udpstorm.", fillcolor="#39e5da35"] ;
5 -> 6 ;
7 [label="entropy = 1.845\nsamples = 1638\nvalue = [0, 0, 13, 1, 934, 1, 0, 0, 0, 2, 0, 108, 4, 0\n0, 0, 167, 2, 0, 4, 0, 371, 4, 2, 1, 4, 4, 0\n0, 1, 2, 0, 0, 0, 1, 3, 2, 7]\nclass = smurf.", fillcolor="#dfe53971"] ;
5 -> 7 ;
8 [label="same_srv_rate <= 0.245\nentropy = 0.992\nsamples = 18828\nvalue = [619, 39, 0, 0, 28, 101, 1, 0, 9, 0, 0, 711, 0\n3, 16199, 62, 104, 0, 1, 0, 143, 214, 0, 0, 189\n402, 0, 0, 0, 0, 0, 0, 0, 2, 0, 0, 1, 0]\nclass = apache2.", fillcolor="#39e5a3da"] ;
0 -> 8 [labeldistance=2.5, labelangle=-45, headlabel="False"] ;
9 [label="diff_srv_rate <= 0.46\nentropy = 0.28\nsamples = 16691\nvalue = [0, 0, 0, 0, 0, 0, 0, 0, 0, 0, 0, 18, 0, 0\n16061, 0, 10, 0, 0, 0, 12, 0, 0, 0, 188, 402, 0\n0, 0, 0, 0, 0, 0, 0, 0, 0, 0, 0]\nclass = apache2.", fillcolor="#39e5a3f5"] ;
8 -> 9 ;
10 [label="entropy = 0.0\nsamples = 16061\nvalue = [0, 0, 0, 0, 0, 0, 0, 0, 0, 0, 0, 0, 0, 0\n16061, 0, 0, 0, 0, 0, 0, 0, 0, 0, 0, 0, 0, 0\n0, 0, 0, 0, 0, 0, 0, 0, 0, 0]\nclass = apache2.", fillcolor="#39e5a3ff"] ;
9 -> 10 ;
11 [label="entropy = 1.284\nsamples = 630\nvalue = [0, 0, 0, 0, 0, 0, 0, 0, 0, 0, 0, 18, 0, 0\n0, 0, 10, 0, 0, 0, 12, 0, 0, 0, 188, 402, 0\n0, 0, 0, 0, 0, 0, 0, 0, 0, 0, 0]\nclass = rootkit.", fillcolor="#7539e57b"] ;
9 -> 11 ;
12 [label="service <= 11.5\nentropy = 2.698\nsamples = 2137\nvalue = [619, 39, 0, 0, 28, 101, 1, 0, 9, 0, 0, 693, 0\n3, 138, 62, 94, 0, 1, 0, 131, 214, 0, 0, 1, 0\n0, 0, 0, 0, 0, 0, 0, 2, 0, 0, 1, 0]\nclass = buffer_overflow.", fillcolor="#39e5530c"] ;
8 -> 12 ;
13 [label="entropy = 2.093\nsamples = 1090\nvalue = [619, 39, 0, 0, 0, 101, 0, 0, 0, 0, 0, 0, 0, 0\n53, 59, 93, 0, 1, 0, 121, 0, 0, 0, 1, 0, 0, 0\n0, 0, 0, 0, 0, 2, 0, 0, 1, 0]\nclass = normal.", fillcolor="#e5813983"] ;
12 -> 13 ;
14 [label="entropy = 1.487\nsamples = 1047\nvalue = [0, 0, 0, 0, 28, 0, 1, 0, 9, 0, 0, 693, 0, 3\n85, 3, 1, 0, 0, 0, 10, 214, 0, 0, 0, 0, 0, 0\n0, 0, 0, 0, 0, 0, 0, 0, 0, 0]\nclass = buffer_overflow.", fillcolor="#39e55393"] ;
12 -> 14 ;
}