digraph Tree {
node [shape=box, style="filled", color="black"] ;
0 [label="src_bytes <= 32.5\nentropy = 0.957\nsamples = 61832\nvalue = [38442, 23390]\nclass = normal.", fillcolor="#e5813964"] ;
1 [label="flag <= 2.5\nentropy = 0.272\nsamples = 21123\nvalue = [987, 20136]\nclass = snmpgetattack.", fillcolor="#399de5f3"] ;
0 -> 1 [labeldistance=2.5, labelangle=45, headlabel="True"] ;
2 [label="service <= 14.0\nentropy = 0.91\nsamples = 2919\nvalue = [950, 1969]\nclass = snmpgetattack.", fillcolor="#399de584"] ;
1 -> 2 ;
3 [label="dst_host_same_src_port_rate <= 0.455\nentropy = 0.998\nsamples = 1804\nvalue = [948, 856]\nclass = normal.", fillcolor="#e5813919"] ;
2 -> 3 ;
4 [label="is_guest_login <= 0.5\nentropy = 0.713\nsamples = 890\nvalue = [716, 174]\nclass = normal.", fillcolor="#e58139c1"] ;
3 -> 4 ;
5 [label="entropy = 0.534\nsamples = 815\nvalue = [716, 99]\nclass = normal.", fillcolor="#e58139dc"] ;
4 -> 5 ;
6 [label="entropy = 0.0\nsamples = 75\nvalue = [0, 75]\nclass = snmpgetattack.", fillcolor="#399de5ff"] ;
4 -> 6 ;
7 [label="src_bytes <= 21.0\nentropy = 0.817\nsamples = 914\nvalue = [232, 682]\nclass = snmpgetattack.", fillcolor="#399de5a8"] ;
3 -> 7 ;
8 [label="entropy = 0.64\nsamples = 812\nvalue = [132, 680]\nclass = snmpgetattack.", fillcolor="#399de5cd"] ;
7 -> 8 ;
9 [label="entropy = 0.139\nsamples = 102\nvalue = [100, 2]\nclass = normal.", fillcolor="#e58139fa"] ;
7 -> 9 ;
10 [label="count <= 47.0\nentropy = 0.019\nsamples = 1115\nvalue = [2, 1113]\nclass = snmpgetattack.", fillcolor="#399de5ff"] ;
2 -> 10 ;
11 [label="entropy = 0.0\nsamples = 1110\nvalue = [0, 1110]\nclass = snmpgetattack.", fillcolor="#399de5ff"] ;
10 -> 11 ;
12 [label="entropy = 0.971\nsamples = 5\nvalue = [2, 3]\nclass = snmpgetattack.", fillcolor="#399de555"] ;
10 -> 12 ;
13 [label="count <= 1.5\nentropy = 0.021\nsamples = 18204\nvalue = [37, 18167]\nclass = snmpgetattack.", fillcolor="#399de5fe"] ;
1 -> 13 ;
14 [label="service <= 3.5\nentropy = 0.271\nsamples = 733\nvalue = [34, 699]\nclass = snmpgetattack.", fillcolor="#399de5f3"] ;
13 -> 14 ;
15 [label="service <= 1.0\nentropy = 0.895\nsamples = 106\nvalue = [33, 73]\nclass = snmpgetattack.", fillcolor="#399de58c"] ;
14 -> 15 ;
16 [label="entropy = 0.0\nsamples = 68\nvalue = [0, 68]\nclass = snmpgetattack.", fillcolor="#399de5ff"] ;
15 -> 16 ;
17 [label="entropy = 0.562\nsamples = 38\nvalue = [33, 5]\nclass = normal.", fillcolor="#e58139d8"] ;
15 -> 17 ;
18 [label="dst_host_rerror_rate <= 0.925\nentropy = 0.017\nsamples = 627\nvalue = [1, 626]\nclass = snmpgetattack.", fillcolor="#399de5ff"] ;
14 -> 18 ;
19 [label="entropy = 0.0\nsamples = 621\nvalue = [0, 621]\nclass = snmpgetattack.", fillcolor="#399de5ff"] ;
18 -> 19 ;
20 [label="entropy = 0.65\nsamples = 6\nvalue = [1, 5]\nclass = snmpgetattack.", fillcolor="#399de5cc"] ;
18 -> 20 ;
21 [label="dst_host_same_src_port_rate <= 0.82\nentropy = 0.002\nsamples = 17471\nvalue = [3, 17468]\nclass = snmpgetattack.", fillcolor="#399de5ff"] ;
13 -> 21 ;
22 [label="entropy = 0.0\nsamples = 17444\nvalue = [0, 17444]\nclass = snmpgetattack.", fillcolor="#399de5ff"] ;
21 -> 22 ;
23 [label="count <= 44.0\nentropy = 0.503\nsamples = 27\nvalue = [3, 24]\nclass = snmpgetattack.", fillcolor="#399de5df"] ;
21 -> 23 ;
24 [label="entropy = 0.0\nsamples = 18\nvalue = [0, 18]\nclass = snmpgetattack.", fillcolor="#399de5ff"] ;
23 -> 24 ;
25 [label="entropy = 0.918\nsamples = 9\nvalue = [3, 6]\nclass = snmpgetattack.", fillcolor="#399de57f"] ;
23 -> 25 ;
26 [label="service <= 4.5\nentropy = 0.402\nsamples = 40709\nvalue = [37455, 3254]\nclass = normal.", fillcolor="#e58139e9"] ;
0 -> 26 [labeldistance=2.5, labelangle=-45, headlabel="False"] ;
27 [label="src_bytes <= 2598.5\nentropy = 0.249\nsamples = 38691\nvalue = [37084, 1607]\nclass = normal.", fillcolor="#e58139f4"] ;
26 -> 27 ;
28 [label="service <= 0.5\nentropy = 0.096\nsamples = 36831\nvalue = [36378, 453]\nclass = normal.", fillcolor="#e58139fc"] ;
27 -> 28 ;
29 [label="count <= 6.5\nentropy = 0.957\nsamples = 1140\nvalue = [709, 431]\nclass = normal.", fillcolor="#e5813964"] ;
28 -> 29 ;
30 [label="entropy = 0.962\nsamples = 699\nvalue = [270, 429]\nclass = snmpgetattack.", fillcolor="#399de55f"] ;
29 -> 30 ;
31 [label="entropy = 0.042\nsamples = 441\nvalue = [439, 2]\nclass = normal.", fillcolor="#e58139fe"] ;
29 -> 31 ;
32 [label="rerror_rate <= 0.45\nentropy = 0.007\nsamples = 35691\nvalue = [35669, 22]\nclass = normal.", fillcolor="#e58139ff"] ;
28 -> 32 ;
33 [label="entropy = 0.002\nsamples = 35674\nvalue = [35669, 5]\nclass = normal.", fillcolor="#e58139ff"] ;
32 -> 33 ;
34 [label="entropy = 0.0\nsamples = 17\nvalue = [0, 17]\nclass = snmpgetattack.", fillcolor="#399de5ff"] ;
32 -> 34 ;
35 [label="src_bytes <= 45004.0\nentropy = 0.958\nsamples = 1860\nvalue = [706, 1154]\nclass = snmpgetattack.", fillcolor="#399de563"] ;
27 -> 35 ;
36 [label="dst_host_rerror_rate <= 0.025\nentropy = 0.899\nsamples = 985\nvalue = [675, 310]\nclass = normal.", fillcolor="#e581398a"] ;
35 -> 36 ;
37 [label="entropy = 0.141\nsamples = 650\nvalue = [637, 13]\nclass = normal.", fillcolor="#e58139fa"] ;
36 -> 37 ;
38 [label="entropy = 0.51\nsamples = 335\nvalue = [38, 297]\nclass = snmpgetattack.", fillcolor="#399de5de"] ;
36 -> 38 ;
39 [label="dst_host_same_srv_rate <= 0.775\nentropy = 0.221\nsamples = 875\nvalue = [31, 844]\nclass = snmpgetattack.", fillcolor="#399de5f6"] ;
35 -> 39 ;
40 [label="entropy = 0.946\nsamples = 77\nvalue = [28, 49]\nclass = snmpgetattack.", fillcolor="#399de56d"] ;
39 -> 40 ;
41 [label="entropy = 0.036\nsamples = 798\nvalue = [3, 795]\nclass = snmpgetattack.", fillcolor="#399de5fe"] ;
39 -> 41 ;
42 [label="dst_host_srv_count <= 166.5\nentropy = 0.688\nsamples = 2018\nvalue = [371, 1647]\nclass = snmpgetattack.", fillcolor="#399de5c6"] ;
26 -> 42 ;
43 [label="dst_host_same_src_port_rate <= 0.005\nentropy = 0.894\nsamples = 1191\nvalue = [370, 821]\nclass = snmpgetattack.", fillcolor="#399de58c"] ;
42 -> 43 ;
44 [label="dst_bytes <= 628.0\nentropy = 0.406\nsamples = 568\nvalue = [46, 522]\nclass = snmpgetattack.", fillcolor="#399de5e9"] ;
43 -> 44 ;
45 [label="entropy = 0.082\nsamples = 494\nvalue = [5, 489]\nclass = snmpgetattack.", fillcolor="#399de5fc"] ;
44 -> 45 ;
46 [label="entropy = 0.992\nsamples = 74\nvalue = [41, 33]\nclass = normal.", fillcolor="#e5813932"] ;
44 -> 46 ;
47 [label="srv_count <= 77.0\nentropy = 0.999\nsamples = 623\nvalue = [324, 299]\nclass = normal.", fillcolor="#e5813914"] ;
43 -> 47 ;
48 [label="entropy = 0.966\nsamples = 533\nvalue = [324, 209]\nclass = normal.", fillcolor="#e581395b"] ;
47 -> 48 ;
49 [label="entropy = 0.0\nsamples = 90\nvalue = [0, 90]\nclass = snmpgetattack.", fillcolor="#399de5ff"] ;
47 -> 49 ;
50 [label="dst_host_serror_rate <= 0.025\nentropy = 0.013\nsamples = 827\nvalue = [1, 826]\nclass = snmpgetattack.", fillcolor="#399de5ff"] ;
42 -> 50 ;
51 [label="entropy = 0.0\nsamples = 822\nvalue = [0, 822]\nclass = snmpgetattack.", fillcolor="#399de5ff"] ;
50 -> 51 ;
52 [label="entropy = 0.722\nsamples = 5\nvalue = [1, 4]\nclass = snmpgetattack.", fillcolor="#399de5bf"] ;
50 -> 52 ;
}