digraph Tree {
node [shape=box, style="filled", color="black"] ;
0 [label="protocol_type <= 1.5\ngini = 0.648\nsamples = 248823\nvalue = [613, 877, 19, 3, 3470, 131, 1, 250, 9, 2, 4038\n845, 16, 16, 46245, 69, 48589, 1, 2, 69, 289, 610\n9, 9, 595, 1305, 17, 131286, 6191, 1931, 2, 12, 1\n1278, 2, 8, 3, 10]\nclass = loadmodule.", fillcolor="#ac39e569"] ;
1 [label="same_srv_rate <= 0.325\ngini = 0.667\nsamples = 116836\nvalue = [613, 877, 19, 3, 3470, 131, 1, 0, 9, 2, 4038, 845\n15, 16, 46245, 69, 48289, 1, 2, 0, 289, 610, 9, 9\n516, 1305, 17, 0, 6191, 1929, 2, 12, 1, 1278, 2\n8, 3, 10]\nclass = udpstorm.", fillcolor="#39e5da07"] ;
0 -> 1 [labeldistance=2.5, labelangle=45, headlabel="True"] ;
2 [label="diff_srv_rate <= 0.335\ngini = 0.082\nsamples = 48134\nvalue = [0, 0, 0, 0, 2, 0, 0, 0, 0, 0, 0, 106, 1, 0\n46097, 0, 99, 0, 0, 0, 16, 0, 0, 0, 508, 1303\n0, 0, 0, 0, 0, 0, 0, 2, 0, 0, 0, 0]\nclass = apache2.", fillcolor="#39e5a3f4"] ;
1 -> 2 ;
3 [label="src_bytes <= 0.5\ngini = 0.001\nsamples = 46116\nvalue = [0, 0, 0, 0, 2, 0, 0, 0, 0, 0, 0, 0, 0, 0\n46093, 0, 13, 0, 0, 0, 0, 0, 0, 0, 3, 5, 0, 0\n0, 0, 0, 0, 0, 0, 0, 0, 0, 0]\nclass = apache2.", fillcolor="#39e5a3ff"] ;
2 -> 3 ;
4 [label="gini = 0.0\nsamples = 46093\nvalue = [0, 0, 0, 0, 0, 0, 0, 0, 0, 0, 0, 0, 0, 0\n46093, 0, 0, 0, 0, 0, 0, 0, 0, 0, 0, 0, 0, 0\n0, 0, 0, 0, 0, 0, 0, 0, 0, 0]\nclass = apache2.", fillcolor="#39e5a3ff"] ;
3 -> 4 ;
5 [label="count <= 16.5\ngini = 0.609\nsamples = 23\nvalue = [0, 0, 0, 0, 2, 0, 0, 0, 0, 0, 0, 0, 0, 0, 0\n0, 13, 0, 0, 0, 0, 0, 0, 0, 3, 5, 0, 0, 0\n0, 0, 0, 0, 0, 0, 0, 0, 0]\nclass = udpstorm.", fillcolor="#39e5da71"] ;
3 -> 5 ;
6 [label="gini = 0.611\nsamples = 6\nvalue = [0, 0, 0, 0, 2, 0, 0, 0, 0, 0, 0, 0, 0, 0, 0\n0, 1, 0, 0, 0, 0, 0, 0, 0, 3, 0, 0, 0, 0, 0\n0, 0, 0, 0, 0, 0, 0, 0]\nclass = nmap.", fillcolor="#5b39e540"] ;
5 -> 6 ;
7 [label="gini = 0.415\nsamples = 17\nvalue = [0, 0, 0, 0, 0, 0, 0, 0, 0, 0, 0, 0, 0, 0, 0\n0, 12, 0, 0, 0, 0, 0, 0, 0, 0, 5, 0, 0, 0\n0, 0, 0, 0, 0, 0, 0, 0, 0]\nclass = udpstorm.", fillcolor="#39e5da95"] ;
5 -> 7 ;
8 [label="dst_host_srv_count <= 1.5\ngini = 0.519\nsamples = 2018\nvalue = [0, 0, 0, 0, 0, 0, 0, 0, 0, 0, 0, 106, 1, 0\n4, 0, 86, 0, 0, 0, 16, 0, 0, 0, 505, 1298, 0\n0, 0, 0, 0, 0, 0, 2, 0, 0, 0, 0]\nclass = rootkit.", fillcolor="#7539e586"] ;
2 -> 8 ;
9 [label="dst_host_serror_rate <= 0.025\ngini = 0.415\nsamples = 1808\nvalue = [0, 0, 0, 0, 0, 0, 0, 0, 0, 0, 0, 0, 0, 0, 0\n0, 5, 0, 0, 0, 15, 0, 0, 0, 495, 1291, 0, 0\n0, 0, 0, 0, 0, 2, 0, 0, 0, 0]\nclass = rootkit.", fillcolor="#7539e59b"] ;
8 -> 9 ;
10 [label="gini = 0.115\nsamples = 782\nvalue = [0, 0, 0, 0, 0, 0, 0, 0, 0, 0, 0, 0, 0, 0, 0\n0, 4, 0, 0, 0, 15, 0, 0, 0, 26, 735, 0, 0, 0\n0, 0, 0, 0, 2, 0, 0, 0, 0]\nclass = rootkit.", fillcolor="#7539e5ef"] ;
9 -> 10 ;
11 [label="gini = 0.497\nsamples = 1026\nvalue = [0, 0, 0, 0, 0, 0, 0, 0, 0, 0, 0, 0, 0, 0, 0\n0, 1, 0, 0, 0, 0, 0, 0, 0, 469, 556, 0, 0, 0\n0, 0, 0, 0, 0, 0, 0, 0, 0]\nclass = rootkit.", fillcolor="#7539e528"] ;
9 -> 11 ;
12 [label="count <= 6.5\ngini = 0.593\nsamples = 210\nvalue = [0, 0, 0, 0, 0, 0, 0, 0, 0, 0, 0, 106, 1, 0\n4, 0, 81, 0, 0, 0, 1, 0, 0, 0, 10, 7, 0, 0\n0, 0, 0, 0, 0, 0, 0, 0, 0, 0]\nclass = buffer_overflow.", fillcolor="#39e55331"] ;
8 -> 12 ;
13 [label="gini = 0.087\nsamples = 111\nvalue = [0, 0, 0, 0, 0, 0, 0, 0, 0, 0, 0, 106, 1, 0\n1, 0, 0, 0, 0, 0, 0, 0, 0, 0, 3, 0, 0, 0, 0\n0, 0, 0, 0, 0, 0, 0, 0, 0]\nclass = buffer_overflow.", fillcolor="#39e553f3"] ;
12 -> 13 ;
14 [label="gini = 0.32\nsamples = 99\nvalue = [0, 0, 0, 0, 0, 0, 0, 0, 0, 0, 0, 0, 0, 0, 3\n0, 81, 0, 0, 0, 1, 0, 0, 0, 7, 7, 0, 0, 0\n0, 0, 0, 0, 0, 0, 0, 0, 0]\nclass = udpstorm.", fillcolor="#39e5dacd"] ;
12 -> 14 ;
15 [label="duration <= 0.5\ngini = 0.492\nsamples = 68702\nvalue = [613, 877, 19, 3, 3468, 131, 1, 0, 9, 2, 4038, 739\n14, 16, 148, 69, 48190, 1, 2, 0, 273, 610, 9, 9\n8, 2, 17, 0, 6191, 1929, 2, 12, 1, 1276, 2, 8\n3, 10]\nclass = udpstorm.", fillcolor="#39e5daab"] ;
1 -> 15 ;
16 [label="src_bytes <= 130.5\ngini = 0.345\nsamples = 58317\nvalue = [211, 867, 2, 1, 556, 125, 0, 0, 9, 0, 0, 543, 9\n9, 148, 69, 46724, 0, 2, 0, 273, 200, 3, 3, 5\n1, 7, 0, 6187, 1929, 0, 12, 1, 418, 0, 0, 1, 2]\nclass = udpstorm.", fillcolor="#39e5dac6"] ;
15 -> 16 ;
17 [label="dst_bytes <= 145.5\ngini = 0.615\nsamples = 24163\nvalue = [211, 0, 2, 1, 556, 108, 0, 0, 9, 0, 0, 543, 3\n4, 148, 69, 13475, 0, 2, 0, 273, 200, 3, 2, 5\n1, 6, 0, 6186, 1929, 0, 12, 1, 414, 0, 0, 0, 0]\nclass = udpstorm.", fillcolor="#39e5da67"] ;
16 -> 17 ;
18 [label="gini = 0.559\nsamples = 12134\nvalue = [209, 0, 0, 1, 0, 108, 0, 0, 9, 0, 0, 543, 3\n4, 148, 69, 7771, 0, 1, 0, 273, 200, 0, 2, 5, 1\n6, 0, 425, 1929, 0, 12, 1, 414, 0, 0, 0, 0]\nclass = udpstorm.", fillcolor="#39e5da92"] ;
17 -> 18 ;
19 [label="gini = 0.544\nsamples = 12029\nvalue = [2, 0, 2, 0, 556, 0, 0, 0, 0, 0, 0, 0, 0, 0\n0, 0, 5704, 0, 1, 0, 0, 0, 3, 0, 0, 0, 0, 0\n5761, 0, 0, 0, 0, 0, 0, 0, 0, 0]\nclass = imap.", fillcolor="#c839e502"] ;
17 -> 19 ;
20 [label="num_compromised <= 0.5\ngini = 0.052\nsamples = 34154\nvalue = [0, 867, 0, 0, 0, 17, 0, 0, 0, 0, 0, 0, 6, 5\n0, 0, 33249, 0, 0, 0, 0, 0, 0, 1, 0, 0, 1, 0\n1, 0, 0, 0, 0, 4, 0, 0, 1, 2]\nclass = udpstorm.", fillcolor="#39e5daf8"] ;
16 -> 20 ;
21 [label="gini = 0.004\nsamples = 33314\nvalue = [0, 30, 0, 0, 0, 17, 0, 0, 0, 0, 0, 0, 6, 5\n0, 0, 33246, 0, 0, 0, 0, 0, 0, 1, 0, 0, 1, 0\n1, 0, 0, 0, 0, 4, 0, 0, 1, 2]\nclass = udpstorm.", fillcolor="#39e5dafe"] ;
20 -> 21 ;
22 [label="gini = 0.007\nsamples = 840\nvalue = [0, 837, 0, 0, 0, 0, 0, 0, 0, 0, 0, 0, 0, 0\n0, 0, 3, 0, 0, 0, 0, 0, 0, 0, 0, 0, 0, 0, 0\n0, 0, 0, 0, 0, 0, 0, 0, 0]\nclass = snmpgetattack.", fillcolor="#e59a39fe"] ;
20 -> 22 ;
23 [label="service <= 15.5\ngini = 0.74\nsamples = 10385\nvalue = [402, 10, 17, 2, 2912, 6, 1, 0, 0, 2, 4038, 196\n5, 7, 0, 0, 1466, 1, 0, 0, 0, 410, 6, 6, 3, 1\n10, 0, 4, 0, 2, 0, 0, 858, 2, 8, 2, 8]\nclass = saint.", fillcolor="#3ce53926"] ;
15 -> 23 ;
24 [label="dst_host_rerror_rate <= 0.025\ngini = 0.643\nsamples = 7390\nvalue = [402, 10, 17, 1, 33, 6, 0, 0, 0, 2, 4038, 88, 5\n7, 0, 0, 1461, 1, 0, 0, 0, 410, 6, 6, 3, 0\n10, 0, 4, 0, 2, 0, 0, 858, 2, 8, 2, 8]\nclass = saint.", fillcolor="#3ce5396f"] ;
23 -> 24 ;
25 [label="gini = 0.558\nsamples = 2325\nvalue = [13, 0, 12, 1, 17, 2, 0, 0, 0, 1, 0, 2, 5, 5\n0, 0, 1367, 0, 0, 0, 0, 150, 6, 5, 0, 0, 10\n0, 4, 0, 2, 0, 0, 705, 2, 6, 2, 8]\nclass = udpstorm.", fillcolor="#39e5da68"] ;
24 -> 25 ;
26 [label="gini = 0.354\nsamples = 5065\nvalue = [389, 10, 5, 0, 16, 4, 0, 0, 0, 1, 4038, 86, 0\n2, 0, 0, 94, 1, 0, 0, 0, 260, 0, 1, 3, 0, 0\n0, 0, 0, 0, 0, 0, 153, 0, 2, 0, 0]\nclass = saint.", fillcolor="#3ce539c7"] ;
24 -> 26 ;
27 [label="src_bytes <= 10.5\ngini = 0.075\nsamples = 2995\nvalue = [0, 0, 0, 1, 2879, 0, 1, 0, 0, 0, 0, 108, 0, 0\n0, 0, 5, 0, 0, 0, 0, 0, 0, 0, 0, 1, 0, 0, 0\n0, 0, 0, 0, 0, 0, 0, 0, 0]\nclass = smurf.", fillcolor="#dfe539f5"] ;
23 -> 27 ;
28 [label="gini = 0.018\nsamples = 109\nvalue = [0, 0, 0, 0, 0, 0, 0, 0, 0, 0, 0, 108, 0, 0\n0, 0, 0, 0, 0, 0, 0, 0, 0, 0, 0, 1, 0, 0, 0\n0, 0, 0, 0, 0, 0, 0, 0, 0]\nclass = buffer_overflow.", fillcolor="#39e553fd"] ;
27 -> 28 ;
29 [label="gini = 0.005\nsamples = 2886\nvalue = [0, 0, 0, 1, 2879, 0, 1, 0, 0, 0, 0, 0, 0, 0\n0, 0, 5, 0, 0, 0, 0, 0, 0, 0, 0, 0, 0, 0, 0\n0, 0, 0, 0, 0, 0, 0, 0, 0]\nclass = smurf.", fillcolor="#dfe539fe"] ;
27 -> 29 ;
30 [label="count <= 5.5\ngini = 0.011\nsamples = 131987\nvalue = [0, 0, 0, 0, 0, 0, 0, 250, 0, 0, 0, 0, 1, 0\n0, 0, 300, 0, 0, 69, 0, 0, 0, 0, 79, 0, 0\n131286, 0, 2, 0, 0, 0, 0, 0, 0, 0, 0]\nclass = loadmodule.", fillcolor="#ac39e5fe"] ;
0 -> 30 [labeldistance=2.5, labelangle=-45, headlabel="False"] ;
31 [label="src_bytes <= 19.0\ngini = 0.672\nsamples = 699\nvalue = [0, 0, 0, 0, 0, 0, 0, 247, 0, 0, 0, 0, 1, 0\n0, 0, 297, 0, 0, 69, 0, 0, 0, 0, 78, 0, 0, 5\n0, 2, 0, 0, 0, 0, 0, 0, 0, 0]\nclass = udpstorm.", fillcolor="#39e5da1c"] ;
30 -> 31 ;
32 [label="gini = 0.0\nsamples = 247\nvalue = [0, 0, 0, 0, 0, 0, 0, 247, 0, 0, 0, 0, 0, 0\n0, 0, 0, 0, 0, 0, 0, 0, 0, 0, 0, 0, 0, 0, 0\n0, 0, 0, 0, 0, 0, 0, 0, 0]\nclass = xsnoop.", fillcolor="#8ce539ff"] ;
31 -> 32 ;
33 [label="srv_diff_host_rate <= 0.585\ngini = 0.515\nsamples = 452\nvalue = [0, 0, 0, 0, 0, 0, 0, 0, 0, 0, 0, 0, 1, 0, 0\n0, 297, 0, 0, 69, 0, 0, 0, 0, 78, 0, 0, 5, 0\n2, 0, 0, 0, 0, 0, 0, 0, 0]\nclass = udpstorm.", fillcolor="#39e5da95"] ;
31 -> 33 ;
34 [label="dst_host_srv_count <= 210.0\ngini = 0.121\nsamples = 315\nvalue = [0, 0, 0, 0, 0, 0, 0, 0, 0, 0, 0, 0, 1, 0, 0\n0, 295, 0, 0, 12, 0, 0, 0, 0, 1, 0, 0, 5, 0\n1, 0, 0, 0, 0, 0, 0, 0, 0]\nclass = udpstorm.", fillcolor="#39e5daee"] ;
33 -> 34 ;
35 [label="gini = 0.093\nsamples = 310\nvalue = [0, 0, 0, 0, 0, 0, 0, 0, 0, 0, 0, 0, 1, 0, 0\n0, 295, 0, 0, 12, 0, 0, 0, 0, 1, 0, 0, 0, 0\n1, 0, 0, 0, 0, 0, 0, 0, 0]\nclass = udpstorm.", fillcolor="#39e5daf2"] ;
34 -> 35 ;
36 [label="gini = 0.0\nsamples = 5\nvalue = [0, 0, 0, 0, 0, 0, 0, 0, 0, 0, 0, 0, 0, 0, 0\n0, 0, 0, 0, 0, 0, 0, 0, 0, 0, 0, 0, 5, 0, 0\n0, 0, 0, 0, 0, 0, 0, 0]\nclass = loadmodule.", fillcolor="#ac39e5ff"] ;
34 -> 36 ;
37 [label="srv_count <= 5.0\ngini = 0.511\nsamples = 137\nvalue = [0, 0, 0, 0, 0, 0, 0, 0, 0, 0, 0, 0, 0, 0, 0\n0, 2, 0, 0, 57, 0, 0, 0, 0, 77, 0, 0, 0, 0\n1, 0, 0, 0, 0, 0, 0, 0, 0]\nclass = nmap.", fillcolor="#5b39e540"] ;
33 -> 37 ;
38 [label="gini = 0.096\nsamples = 60\nvalue = [0, 0, 0, 0, 0, 0, 0, 0, 0, 0, 0, 0, 0, 0, 0\n0, 2, 0, 0, 57, 0, 0, 0, 0, 0, 0, 0, 0, 0\n1, 0, 0, 0, 0, 0, 0, 0, 0]\nclass = satan.", fillcolor="#399de5f2"] ;
37 -> 38 ;
39 [label="gini = 0.0\nsamples = 77\nvalue = [0, 0, 0, 0, 0, 0, 0, 0, 0, 0, 0, 0, 0, 0, 0\n0, 0, 0, 0, 0, 0, 0, 0, 0, 77, 0, 0, 0, 0\n0, 0, 0, 0, 0, 0, 0, 0, 0]\nclass = nmap.", fillcolor="#5b39e5ff"] ;
37 -> 39 ;
40 [label="dst_host_srv_count <= 11.5\ngini = 0.0\nsamples = 131288\nvalue = [0, 0, 0, 0, 0, 0, 0, 3, 0, 0, 0, 0, 0, 0, 0\n0, 3, 0, 0, 0, 0, 0, 0, 0, 1, 0, 0, 131281, 0\n0, 0, 0, 0, 0, 0, 0, 0, 0]\nclass = loadmodule.", fillcolor="#ac39e5ff"] ;
30 -> 40 ;
41 [label="gini = 0.611\nsamples = 6\nvalue = [0, 0, 0, 0, 0, 0, 0, 0, 0, 0, 0, 0, 0, 0, 0\n0, 2, 0, 0, 0, 0, 0, 0, 0, 1, 0, 0, 3, 0, 0\n0, 0, 0, 0, 0, 0, 0, 0]\nclass = loadmodule.", fillcolor="#ac39e540"] ;
40 -> 41 ;
42 [label="dst_host_same_srv_rate <= 0.085\ngini = 0.0\nsamples = 131282\nvalue = [0, 0, 0, 0, 0, 0, 0, 3, 0, 0, 0, 0, 0, 0, 0\n0, 1, 0, 0, 0, 0, 0, 0, 0, 0, 0, 0, 131278, 0\n0, 0, 0, 0, 0, 0, 0, 0, 0]\nclass = loadmodule.", fillcolor="#ac39e5ff"] ;
40 -> 42 ;
43 [label="gini = 0.32\nsamples = 5\nvalue = [0, 0, 0, 0, 0, 0, 0, 0, 0, 0, 0, 0, 0, 0, 0\n0, 1, 0, 0, 0, 0, 0, 0, 0, 0, 0, 0, 4, 0, 0\n0, 0, 0, 0, 0, 0, 0, 0]\nclass = loadmodule.", fillcolor="#ac39e5bf"] ;
42 -> 43 ;
44 [label="count <= 510.5\ngini = 0.0\nsamples = 131277\nvalue = [0, 0, 0, 0, 0, 0, 0, 3, 0, 0, 0, 0, 0, 0, 0\n0, 0, 0, 0, 0, 0, 0, 0, 0, 0, 0, 0, 131274, 0\n0, 0, 0, 0, 0, 0, 0, 0, 0]\nclass = loadmodule.", fillcolor="#ac39e5ff"] ;
42 -> 44 ;
45 [label="gini = 0.0\nsamples = 49873\nvalue = [0, 0, 0, 0, 0, 0, 0, 0, 0, 0, 0, 0, 0, 0, 0\n0, 0, 0, 0, 0, 0, 0, 0, 0, 0, 0, 0, 49873, 0\n0, 0, 0, 0, 0, 0, 0, 0, 0]\nclass = loadmodule.", fillcolor="#ac39e5ff"] ;
44 -> 45 ;
46 [label="gini = 0.0\nsamples = 81404\nvalue = [0, 0, 0, 0, 0, 0, 0, 3, 0, 0, 0, 0, 0, 0, 0\n0, 0, 0, 0, 0, 0, 0, 0, 0, 0, 0, 0, 81401, 0\n0, 0, 0, 0, 0, 0, 0, 0, 0]\nclass = loadmodule.", fillcolor="#ac39e5ff"] ;
44 -> 46 ;
}