digraph Tree {
node [shape=box, style="filled", color="black"] ;
0 [label="count <= 84.5\ngini = 0.314\nsamples = 248823\nvalue = [48589, 200234]\nclass = snmpgetattack.", fillcolor="#399de5c1"] ;
1 [label="dst_bytes <= 293.5\ngini = 0.432\nsamples = 69518\nvalue = [47562, 21956]\nclass = normal.", fillcolor="#e5813989"] ;
0 -> 1 [labeldistance=2.5, labelangle=45, headlabel="True"] ;
2 [label="duration <= 0.5\ngini = 0.493\nsamples = 36708\nvalue = [16191, 20517]\nclass = snmpgetattack.", fillcolor="#399de536"] ;
1 -> 2 ;
3 [label="flag <= 0.5\ngini = 0.491\nsamples = 28105\nvalue = [15955, 12150]\nclass = normal.", fillcolor="#e581393d"] ;
2 -> 3 ;
4 [label="logged_in <= 0.5\ngini = 0.472\nsamples = 25706\nvalue = [15869, 9837]\nclass = normal.", fillcolor="#e5813961"] ;
3 -> 4 ;
5 [label="gini = 0.489\nsamples = 22970\nvalue = [13168, 9802]\nclass = normal.", fillcolor="#e5813941"] ;
4 -> 5 ;
6 [label="gini = 0.025\nsamples = 2736\nvalue = [2701, 35]\nclass = normal.", fillcolor="#e58139fc"] ;
4 -> 6 ;
7 [label="flag <= 2.5\ngini = 0.069\nsamples = 2399\nvalue = [86, 2313]\nclass = snmpgetattack.", fillcolor="#399de5f6"] ;
3 -> 7 ;
8 [label="gini = 0.321\nsamples = 239\nvalue = [48, 191]\nclass = snmpgetattack.", fillcolor="#399de5bf"] ;
7 -> 8 ;
9 [label="gini = 0.035\nsamples = 2160\nvalue = [38, 2122]\nclass = snmpgetattack.", fillcolor="#399de5fa"] ;
7 -> 9 ;
10 [label="protocol_type <= 0.5\ngini = 0.053\nsamples = 8603\nvalue = [236, 8367]\nclass = snmpgetattack.", fillcolor="#399de5f8"] ;
2 -> 10 ;
11 [label="dst_host_same_src_port_rate <= 0.975\ngini = 0.15\nsamples = 49\nvalue = [45, 4]\nclass = normal.", fillcolor="#e58139e8"] ;
10 -> 11 ;
12 [label="gini = 0.0\nsamples = 39\nvalue = [39, 0]\nclass = normal.", fillcolor="#e58139ff"] ;
11 -> 12 ;
13 [label="gini = 0.48\nsamples = 10\nvalue = [6, 4]\nclass = normal.", fillcolor="#e5813955"] ;
11 -> 13 ;
14 [label="service <= 2.5\ngini = 0.044\nsamples = 8554\nvalue = [191, 8363]\nclass = snmpgetattack.", fillcolor="#399de5f9"] ;
10 -> 14 ;
15 [label="gini = 0.338\nsamples = 492\nvalue = [106, 386]\nclass = snmpgetattack.", fillcolor="#399de5b9"] ;
14 -> 15 ;
16 [label="gini = 0.021\nsamples = 8062\nvalue = [85, 7977]\nclass = snmpgetattack.", fillcolor="#399de5fc"] ;
14 -> 16 ;
17 [label="hot <= 0.5\ngini = 0.084\nsamples = 32810\nvalue = [31371, 1439]\nclass = normal.", fillcolor="#e58139f3"] ;
1 -> 17 ;
18 [label="service <= 3.5\ngini = 0.006\nsamples = 31338\nvalue = [31244, 94]\nclass = normal.", fillcolor="#e58139fe"] ;
17 -> 18 ;
19 [label="num_root <= 0.5\ngini = 0.001\nsamples = 31143\nvalue = [31133, 10]\nclass = normal.", fillcolor="#e58139ff"] ;
18 -> 19 ;
20 [label="gini = 0.0\nsamples = 31130\nvalue = [31126, 4]\nclass = normal.", fillcolor="#e58139ff"] ;
19 -> 20 ;
21 [label="gini = 0.497\nsamples = 13\nvalue = [7, 6]\nclass = normal.", fillcolor="#e5813924"] ;
19 -> 21 ;
22 [label="srv_count <= 1.5\ngini = 0.49\nsamples = 195\nvalue = [111, 84]\nclass = normal.", fillcolor="#e581393e"] ;
18 -> 22 ;
23 [label="gini = 0.433\nsamples = 158\nvalue = [108, 50]\nclass = normal.", fillcolor="#e5813989"] ;
22 -> 23 ;
24 [label="gini = 0.149\nsamples = 37\nvalue = [3, 34]\nclass = snmpgetattack.", fillcolor="#399de5e9"] ;
22 -> 24 ;
25 [label="hot <= 2.5\ngini = 0.158\nsamples = 1472\nvalue = [127, 1345]\nclass = snmpgetattack.", fillcolor="#399de5e7"] ;
17 -> 25 ;
26 [label="dst_host_srv_diff_host_rate <= 0.005\ngini = 0.045\nsamples = 1358\nvalue = [31, 1327]\nclass = snmpgetattack.", fillcolor="#399de5f9"] ;
25 -> 26 ;
27 [label="gini = 0.021\nsamples = 1339\nvalue = [14, 1325]\nclass = snmpgetattack.", fillcolor="#399de5fc"] ;
26 -> 27 ;
28 [label="gini = 0.188\nsamples = 19\nvalue = [17, 2]\nclass = normal.", fillcolor="#e58139e1"] ;
26 -> 28 ;
29 [label="service <= 10.0\ngini = 0.266\nsamples = 114\nvalue = [96, 18]\nclass = normal.", fillcolor="#e58139cf"] ;
25 -> 29 ;
30 [label="gini = 0.059\nsamples = 98\nvalue = [95, 3]\nclass = normal.", fillcolor="#e58139f7"] ;
29 -> 30 ;
31 [label="gini = 0.117\nsamples = 16\nvalue = [1, 15]\nclass = snmpgetattack.", fillcolor="#399de5ee"] ;
29 -> 31 ;
32 [label="dst_bytes <= 20.5\ngini = 0.011\nsamples = 179305\nvalue = [1027, 178278]\nclass = snmpgetattack.", fillcolor="#399de5fe"] ;
0 -> 32 [labeldistance=2.5, labelangle=-45, headlabel="False"] ;
33 [label="protocol_type <= 0.5\ngini = 0.001\nsamples = 178321\nvalue = [45, 178276]\nclass = snmpgetattack.", fillcolor="#399de5ff"] ;
32 -> 33 ;
34 [label="srv_count <= 1.5\ngini = 0.269\nsamples = 250\nvalue = [40, 210]\nclass = snmpgetattack.", fillcolor="#399de5ce"] ;
33 -> 34 ;
35 [label="gini = 0.0\nsamples = 207\nvalue = [0, 207]\nclass = snmpgetattack.", fillcolor="#399de5ff"] ;
34 -> 35 ;
36 [label="srv_count <= 89.5\ngini = 0.13\nsamples = 43\nvalue = [40, 3]\nclass = normal.", fillcolor="#e58139ec"] ;
34 -> 36 ;
37 [label="gini = 0.051\nsamples = 38\nvalue = [37, 1]\nclass = normal.", fillcolor="#e58139f8"] ;
36 -> 37 ;
38 [label="gini = 0.48\nsamples = 5\nvalue = [3, 2]\nclass = normal.", fillcolor="#e5813955"] ;
36 -> 38 ;
39 [label="duration <= 2.5\ngini = 0.0\nsamples = 178071\nvalue = [5, 178066]\nclass = snmpgetattack.", fillcolor="#399de5ff"] ;
33 -> 39 ;
40 [label="gini = 0.0\nsamples = 178043\nvalue = [0, 178043]\nclass = snmpgetattack.", fillcolor="#399de5ff"] ;
39 -> 40 ;
41 [label="dst_host_same_src_port_rate <= 0.475\ngini = 0.293\nsamples = 28\nvalue = [5, 23]\nclass = snmpgetattack.", fillcolor="#399de5c8"] ;
39 -> 41 ;
42 [label="gini = 0.0\nsamples = 23\nvalue = [0, 23]\nclass = snmpgetattack.", fillcolor="#399de5ff"] ;
41 -> 42 ;
43 [label="gini = 0.0\nsamples = 5\nvalue = [5, 0]\nclass = normal.", fillcolor="#e58139ff"] ;
41 -> 43 ;
44 [label="srv_count <= 88.0\ngini = 0.004\nsamples = 984\nvalue = [982, 2]\nclass = normal.", fillcolor="#e58139fe"] ;
32 -> 44 ;
45 [label="gini = 0.48\nsamples = 5\nvalue = [3, 2]\nclass = normal.", fillcolor="#e5813955"] ;
44 -> 45 ;
46 [label="gini = 0.0\nsamples = 979\nvalue = [979, 0]\nclass = normal.", fillcolor="#e58139ff"] ;
44 -> 46 ;
}